<?xml version="1.0"?>
<opencv_storage>
<cascade>
  <stageType>BOOST</stageType>
  <featureType>HAAR</featureType>
  <height>30</height>
  <width>50</width>
  <stageParams>
    <boostType>GAB</boostType>
    <minHitRate>9.9500000476837158e-01</minHitRate>
    <maxFalseAlarm>5.0000000000000000e-01</maxFalseAlarm>
    <weightTrimRate>9.4999999999999996e-01</weightTrimRate>
    <maxDepth>1</maxDepth>
    <maxWeakCount>100</maxWeakCount></stageParams>
  <featureParams>
    <maxCatCount>0</maxCatCount>
    <featSize>1</featSize>
    <mode>BASIC</mode></featureParams>
  <stageNum>11</stageNum>
  <stages>
    <!-- stage 0 -->
    <_>
      <maxWeakCount>6</maxWeakCount>
      <stageThreshold>-1.5975159406661987e+00</stageThreshold>
      <weakClassifiers>
        <_>
          <internalNodes>
            0 -1 17 -2.2456964477896690e-02</internalNodes>
          <leafValues>
            6.7804878950119019e-01 -6.0740739107131958e-01</leafValues></_>
        <_>
          <internalNodes>
            0 -1 4 -4.8719551414251328e-03</internalNodes>
          <leafValues>
            7.3491859436035156e-01 -5.2280437946319580e-01</leafValues></_>
        <_>
          <internalNodes>
            0 -1 50 9.7630741074681282e-03</internalNodes>
          <leafValues>
            -4.3925407528877258e-01 6.8275159597396851e-01</leafValues></_>
        <_>
          <internalNodes>
            0 -1 72 6.3917296938598156e-04</internalNodes>
          <leafValues>
            -5.6386739015579224e-01 4.8696762323379517e-01</leafValues></_>
        <_>
          <internalNodes>
            0 -1 57 7.4800819158554077e-02</internalNodes>
          <leafValues>
            -3.4516364336013794e-01 7.2585934400558472e-01</leafValues></_>
        <_>
          <internalNodes>
            0 -1 1 -1.1987605830654502e-03</internalNodes>
          <leafValues>
            6.5255522727966309e-01 -4.0447521209716797e-01</leafValues></_></weakClassifiers></_>
    <!-- stage 1 -->
    <_>
      <maxWeakCount>8</maxWeakCount>
      <stageThreshold>-1.5402467250823975e+00</stageThreshold>
      <weakClassifiers>
        <_>
          <internalNodes>
            0 -1 19 -9.4787720590829849e-03</internalNodes>
          <leafValues>
            6.1336517333984375e-01 -5.7815444469451904e-01</leafValues></_>
        <_>
          <internalNodes>
            0 -1 6 -5.3341253660619259e-03</internalNodes>
          <leafValues>
            5.8495676517486572e-01 -4.5569333434104919e-01</leafValues></_>
        <_>
          <internalNodes>
            0 -1 67 -2.0308727398514748e-02</internalNodes>
          <leafValues>
            5.1196038722991943e-01 -5.2156662940979004e-01</leafValues></_>
        <_>
          <internalNodes>
            0 -1 59 5.8162994682788849e-03</internalNodes>
          <leafValues>
            -3.5991653800010681e-01 7.1238797903060913e-01</leafValues></_>
        <_>
          <internalNodes>
            0 -1 38 -3.8953224429860711e-04</internalNodes>
          <leafValues>
            -8.7261384725570679e-01 2.7620786428451538e-01</leafValues></_>
        <_>
          <internalNodes>
            0 -1 13 -5.5292677134275436e-03</internalNodes>
          <leafValues>
            7.8476923704147339e-01 -2.9292994737625122e-01</leafValues></_>
        <_>
          <internalNodes>
            0 -1 14 -2.8085424564778805e-03</internalNodes>
          <leafValues>
            5.9724634885787964e-01 -3.8228577375411987e-01</leafValues></_>
        <_>
          <internalNodes>
            0 -1 21 1.6782281454652548e-03</internalNodes>
          <leafValues>
            -3.0360704660415649e-01 6.2845683097839355e-01</leafValues></_></weakClassifiers></_>
    <!-- stage 2 -->
    <_>
      <maxWeakCount>7</maxWeakCount>
      <stageThreshold>-1.5933389663696289e+00</stageThreshold>
      <weakClassifiers>
        <_>
          <internalNodes>
            0 -1 64 -1.5685670077800751e-02</internalNodes>
          <leafValues>
            4.9122807383537292e-01 -5.5465584993362427e-01</leafValues></_>
        <_>
          <internalNodes>
            0 -1 69 5.6085190735757351e-03</internalNodes>
          <leafValues>
            -4.0136456489562988e-01 5.7737308740615845e-01</leafValues></_>
        <_>
          <internalNodes>
            0 -1 37 2.6963958516716957e-03</internalNodes>
          <leafValues>
            2.7557465434074402e-01 -8.5536170005798340e-01</leafValues></_>
        <_>
          <internalNodes>
            0 -1 3 1.7410028725862503e-02</internalNodes>
          <leafValues>
            2.6275041699409485e-01 -7.5847434997558594e-01</leafValues></_>
        <_>
          <internalNodes>
            0 -1 9 -5.0034392625093460e-02</internalNodes>
          <leafValues>
            6.6695803403854370e-01 -3.6608770489692688e-01</leafValues></_>
        <_>
          <internalNodes>
            0 -1 0 1.8648602068424225e-01</internalNodes>
          <leafValues>
            -2.6243180036544800e-01 8.7094396352767944e-01</leafValues></_>
        <_>
          <internalNodes>
            0 -1 5 -8.3612144226208329e-04</internalNodes>
          <leafValues>
            4.7410064935684204e-01 -6.3344138860702515e-01</leafValues></_></weakClassifiers></_>
    <!-- stage 3 -->
    <_>
      <maxWeakCount>5</maxWeakCount>
      <stageThreshold>-1.2617640495300293e+00</stageThreshold>
      <weakClassifiers>
        <_>
          <internalNodes>
            0 -1 53 1.0471031069755554e-02</internalNodes>
          <leafValues>
            -4.7422680258750916e-01 6.1413043737411499e-01</leafValues></_>
        <_>
          <internalNodes>
            0 -1 61 -2.4547193199396133e-02</internalNodes>
          <leafValues>
            4.5063555240631104e-01 -5.4847031831741333e-01</leafValues></_>
        <_>
          <internalNodes>
            0 -1 32 -1.1336242780089378e-02</internalNodes>
          <leafValues>
            -8.4524255990982056e-01 2.3390005528926849e-01</leafValues></_>
        <_>
          <internalNodes>
            0 -1 34 -5.8782566338777542e-03</internalNodes>
          <leafValues>
            -7.7699387073516846e-01 2.7760201692581177e-01</leafValues></_>
        <_>
          <internalNodes>
            0 -1 42 7.5247080530971289e-04</internalNodes>
          <leafValues>
            2.3765993118286133e-01 -7.8433036804199219e-01</leafValues></_></weakClassifiers></_>
    <!-- stage 4 -->
    <_>
      <maxWeakCount>7</maxWeakCount>
      <stageThreshold>-9.2119735479354858e-01</stageThreshold>
      <weakClassifiers>
        <_>
          <internalNodes>
            0 -1 23 -1.3831461779773235e-02</internalNodes>
          <leafValues>
            8.2031250000000000e-01 -3.7463977932929993e-01</leafValues></_>
        <_>
          <internalNodes>
            0 -1 70 2.4628927931189537e-03</internalNodes>
          <leafValues>
            -4.6764999628067017e-01 5.1226186752319336e-01</leafValues></_>
        <_>
          <internalNodes>
            0 -1 66 -6.7434203810989857e-03</internalNodes>
          <leafValues>
            7.5870651006698608e-01 -2.8661125898361206e-01</leafValues></_>
        <_>
          <internalNodes>
            0 -1 33 -4.0115774609148502e-03</internalNodes>
          <leafValues>
            -8.3485603332519531e-01 3.0849263072013855e-01</leafValues></_>
        <_>
          <internalNodes>
            0 -1 2 -2.1021138876676559e-02</internalNodes>
          <leafValues>
            4.3673571944236755e-01 -4.6757411956787109e-01</leafValues></_>
        <_>
          <internalNodes>
            0 -1 41 -5.1277037709951401e-03</internalNodes>
          <leafValues>
            -9.2996913194656372e-01 1.8759129941463470e-01</leafValues></_>
        <_>
          <internalNodes>
            0 -1 44 2.3139057157095522e-04</internalNodes>
          <leafValues>
            1.7919386923313141e-01 -8.8965314626693726e-01</leafValues></_></weakClassifiers></_>
    <!-- stage 5 -->
    <_>
      <maxWeakCount>8</maxWeakCount>
      <stageThreshold>-9.1067993640899658e-01</stageThreshold>
      <weakClassifiers>
        <_>
          <internalNodes>
            0 -1 65 6.2637710943818092e-03</internalNodes>
          <leafValues>
            -3.8554215431213379e-01 7.2027969360351562e-01</leafValues></_>
        <_>
          <internalNodes>
            0 -1 15 8.9601352810859680e-03</internalNodes>
          <leafValues>
            -2.3083303868770599e-01 8.1852447986602783e-01</leafValues></_>
        <_>
          <internalNodes>
            0 -1 55 -6.8341975565999746e-04</internalNodes>
          <leafValues>
            -6.2218981981277466e-01 3.2253661751747131e-01</leafValues></_>
        <_>
          <internalNodes>
            0 -1 16 6.6972589120268822e-03</internalNodes>
          <leafValues>
            -2.6407459378242493e-01 7.3525452613830566e-01</leafValues></_>
        <_>
          <internalNodes>
            0 -1 7 -2.9338034801185131e-03</internalNodes>
          <leafValues>
            4.2954429984092712e-01 -4.8827993869781494e-01</leafValues></_>
        <_>
          <internalNodes>
            0 -1 46 -3.8221059367060661e-04</internalNodes>
          <leafValues>
            -8.0858790874481201e-01 2.5270739197731018e-01</leafValues></_>
        <_>
          <internalNodes>
            0 -1 12 -5.7945512235164642e-03</internalNodes>
          <leafValues>
            6.4752984046936035e-01 -3.2898095250129700e-01</leafValues></_>
        <_>
          <internalNodes>
            0 -1 31 -7.5490381568670273e-03</internalNodes>
          <leafValues>
            -7.0603752136230469e-01 3.1442204117774963e-01</leafValues></_></weakClassifiers></_>
    <!-- stage 6 -->
    <_>
      <maxWeakCount>8</maxWeakCount>
      <stageThreshold>-7.9691189527511597e-01</stageThreshold>
      <weakClassifiers>
        <_>
          <internalNodes>
            0 -1 20 8.1632463261485100e-03</internalNodes>
          <leafValues>
            -3.5135135054588318e-01 7.9757082462310791e-01</leafValues></_>
        <_>
          <internalNodes>
            0 -1 60 9.0938910841941833e-02</internalNodes>
          <leafValues>
            -2.6376700401306152e-01 6.9189715385437012e-01</leafValues></_>
        <_>
          <internalNodes>
            0 -1 18 -7.2362073697149754e-03</internalNodes>
          <leafValues>
            4.9496790766716003e-01 -4.2370831966400146e-01</leafValues></_>
        <_>
          <internalNodes>
            0 -1 35 9.6932929009199142e-03</internalNodes>
          <leafValues>
            2.5110405683517456e-01 -8.1199908256530762e-01</leafValues></_>
        <_>
          <internalNodes>
            0 -1 49 -7.2166207246482372e-04</internalNodes>
          <leafValues>
            -7.4698203802108765e-01 2.5684159994125366e-01</leafValues></_>
        <_>
          <internalNodes>
            0 -1 62 -3.5466507542878389e-03</internalNodes>
          <leafValues>
            6.3126605749130249e-01 -3.6075258255004883e-01</leafValues></_>
        <_>
          <internalNodes>
            0 -1 54 -2.7648848481476307e-03</internalNodes>
          <leafValues>
            6.4495700597763062e-01 -4.4147646427154541e-01</leafValues></_>
        <_>
          <internalNodes>
            0 -1 71 2.1607761736959219e-03</internalNodes>
          <leafValues>
            -3.6226347088813782e-01 5.3619819879531860e-01</leafValues></_></weakClassifiers></_>
    <!-- stage 7 -->
    <_>
      <maxWeakCount>6</maxWeakCount>
      <stageThreshold>-7.5990700721740723e-01</stageThreshold>
      <weakClassifiers>
        <_>
          <internalNodes>
            0 -1 56 1.0541668161749840e-02</internalNodes>
          <leafValues>
            -3.8023951649665833e-01 7.2340422868728638e-01</leafValues></_>
        <_>
          <internalNodes>
            0 -1 29 -8.4178969264030457e-03</internalNodes>
          <leafValues>
            3.9941579103469849e-01 -5.7664179801940918e-01</leafValues></_>
        <_>
          <internalNodes>
            0 -1 10 -7.2851218283176422e-03</internalNodes>
          <leafValues>
            7.8667390346527100e-01 -2.7101236581802368e-01</leafValues></_>
        <_>
          <internalNodes>
            0 -1 28 8.5373688489198685e-03</internalNodes>
          <leafValues>
            -1.9198086857795715e-01 9.2318689823150635e-01</leafValues></_>
        <_>
          <internalNodes>
            0 -1 36 7.6664425432682037e-04</internalNodes>
          <leafValues>
            3.0553108453750610e-01 -7.5058895349502563e-01</leafValues></_>
        <_>
          <internalNodes>
            0 -1 47 5.0792614929378033e-03</internalNodes>
          <leafValues>
            -4.1227132081985474e-01 4.3449893593788147e-01</leafValues></_></weakClassifiers></_>
    <!-- stage 8 -->
    <_>
      <maxWeakCount>7</maxWeakCount>
      <stageThreshold>-6.6842180490493774e-01</stageThreshold>
      <weakClassifiers>
        <_>
          <internalNodes>
            0 -1 58 4.3818261474370956e-03</internalNodes>
          <leafValues>
            -5.7746475934982300e-01 5.2317881584167480e-01</leafValues></_>
        <_>
          <internalNodes>
            0 -1 22 6.7624254152178764e-03</internalNodes>
          <leafValues>
            -3.1440484523773193e-01 7.5789159536361694e-01</leafValues></_>
        <_>
          <internalNodes>
            0 -1 24 1.6588915605098009e-03</internalNodes>
          <leafValues>
            -3.9278167486190796e-01 5.1556146144866943e-01</leafValues></_>
        <_>
          <internalNodes>
            0 -1 73 2.3874352336861193e-04</internalNodes>
          <leafValues>
            -5.9168285131454468e-01 3.3776867389678955e-01</leafValues></_>
        <_>
          <internalNodes>
            0 -1 45 -6.0414301697164774e-04</internalNodes>
          <leafValues>
            -9.1886872053146362e-01 2.0559141039848328e-01</leafValues></_>
        <_>
          <internalNodes>
            0 -1 11 -2.4964201450347900e-01</internalNodes>
          <leafValues>
            8.5722249746322632e-01 -2.4640254676342010e-01</leafValues></_>
        <_>
          <internalNodes>
            0 -1 43 2.5100433267652988e-03</internalNodes>
          <leafValues>
            -4.1615158319473267e-01 5.3538894653320312e-01</leafValues></_></weakClassifiers></_>
    <!-- stage 9 -->
    <_>
      <maxWeakCount>5</maxWeakCount>
      <stageThreshold>-4.3541133403778076e-01</stageThreshold>
      <weakClassifiers>
        <_>
          <internalNodes>
            0 -1 63 3.3548218198120594e-03</internalNodes>
          <leafValues>
            -6.3817095756530762e-01 6.0626399517059326e-01</leafValues></_>
        <_>
          <internalNodes>
            0 -1 26 -2.7918227715417743e-04</internalNodes>
          <leafValues>
            8.4926325082778931e-01 -4.0207165479660034e-01</leafValues></_>
        <_>
          <internalNodes>
            0 -1 52 -8.8469276670366526e-04</internalNodes>
          <leafValues>
            -8.5730016231536865e-01 4.5093983411788940e-01</leafValues></_>
        <_>
          <internalNodes>
            0 -1 51 4.1184956207871437e-03</internalNodes>
          <leafValues>
            -3.8682594895362854e-01 9.7182577848434448e-01</leafValues></_>
        <_>
          <internalNodes>
            0 -1 30 -7.7748094918206334e-04</internalNodes>
          <leafValues>
            6.0452240705490112e-01 -5.9896188974380493e-01</leafValues></_></weakClassifiers></_>
    <!-- stage 10 -->
    <_>
      <maxWeakCount>7</maxWeakCount>
      <stageThreshold>-1.3441883325576782e+00</stageThreshold>
      <weakClassifiers>
        <_>
          <internalNodes>
            0 -1 25 -5.1759863272309303e-03</internalNodes>
          <leafValues>
            7.6632302999496460e-01 -4.1426402330398560e-01</leafValues></_>
        <_>
          <internalNodes>
            0 -1 39 -5.4820626974105835e-04</internalNodes>
          <leafValues>
            -7.7880907058715820e-01 3.6044502258300781e-01</leafValues></_>
        <_>
          <internalNodes>
            0 -1 8 -1.6899386048316956e-01</internalNodes>
          <leafValues>
            4.7496551275253296e-01 -5.6884944438934326e-01</leafValues></_>
        <_>
          <internalNodes>
            0 -1 68 -1.5047931810840964e-03</internalNodes>
          <leafValues>
            7.2588694095611572e-01 -2.9756480455398560e-01</leafValues></_>
        <_>
          <internalNodes>
            0 -1 27 1.0841449256986380e-03</internalNodes>
          <leafValues>
            -3.6346229910850525e-01 6.8839019536972046e-01</leafValues></_>
        <_>
          <internalNodes>
            0 -1 40 1.0217581875622272e-03</internalNodes>
          <leafValues>
            3.5599991679191589e-01 -7.9703003168106079e-01</leafValues></_>
        <_>
          <internalNodes>
            0 -1 48 1.2561862822622061e-03</internalNodes>
          <leafValues>
            -4.1649267077445984e-01 5.8641356229782104e-01</leafValues></_></weakClassifiers></_></stages>
  <features>
    <_>
      <rects>
        <_>
          0 8 43 15 -1.</_>
        <_>
          0 13 43 5 3.</_></rects>
      <tilted>0</tilted></_>
    <_>
      <rects>
        <_>
          0 15 2 13 -1.</_>
        <_>
          1 15 1 13 2.</_></rects>
      <tilted>0</tilted></_>
    <_>
      <rects>
        <_>
          0 16 36 14 -1.</_>
        <_>
          0 16 18 7 2.</_>
        <_>
          18 23 18 7 2.</_></rects>
      <tilted>0</tilted></_>
    <_>
      <rects>
        <_>
          0 17 42 12 -1.</_>
        <_>
          0 17 21 6 2.</_>
        <_>
          21 23 21 6 2.</_></rects>
      <tilted>0</tilted></_>
    <_>
      <rects>
        <_>
          0 22 6 8 -1.</_>
        <_>
          3 22 3 8 2.</_></rects>
      <tilted>0</tilted></_>
    <_>
      <rects>
        <_>
          0 23 4 7 -1.</_>
        <_>
          2 23 2 7 2.</_></rects>
      <tilted>0</tilted></_>
    <_>
      <rects>
        <_>
          0 24 8 6 -1.</_>
        <_>
          4 24 4 6 2.</_></rects>
      <tilted>0</tilted></_>
    <_>
      <rects>
        <_>
          0 26 10 4 -1.</_>
        <_>
          5 26 5 4 2.</_></rects>
      <tilted>0</tilted></_>
    <_>
      <rects>
        <_>
          2 8 40 22 -1.</_>
        <_>
          2 19 40 11 2.</_></rects>
      <tilted>0</tilted></_>
    <_>
      <rects>
        <_>
          2 12 42 6 -1.</_>
        <_>
          2 15 42 3 2.</_></rects>
      <tilted>0</tilted></_>
    <_>
      <rects>
        <_>
          2 27 32 3 -1.</_>
        <_>
          2 28 32 1 3.</_></rects>
      <tilted>0</tilted></_>
    <_>
      <rects>
        <_>
          3 6 45 24 -1.</_>
        <_>
          3 14 45 8 3.</_></rects>
      <tilted>0</tilted></_>
    <_>
      <rects>
        <_>
          3 22 9 4 -1.</_>
        <_>
          6 22 3 4 3.</_></rects>
      <tilted>0</tilted></_>
    <_>
      <rects>
        <_>
          3 27 28 3 -1.</_>
        <_>
          3 28 28 1 3.</_></rects>
      <tilted>0</tilted></_>
    <_>
      <rects>
        <_>
          4 25 8 3 -1.</_>
        <_>
          8 25 4 3 2.</_></rects>
      <tilted>0</tilted></_>
    <_>
      <rects>
        <_>
          5 16 6 10 -1.</_>
        <_>
          5 16 3 5 2.</_>
        <_>
          8 21 3 5 2.</_></rects>
      <tilted>0</tilted></_>
    <_>
      <rects>
        <_>
          5 19 6 8 -1.</_>
        <_>
          7 19 2 8 3.</_></rects>
      <tilted>0</tilted></_>
    <_>
      <rects>
        <_>
          6 12 9 10 -1.</_>
        <_>
          6 17 9 5 2.</_></rects>
      <tilted>0</tilted></_>
    <_>
      <rects>
        <_>
          6 19 16 6 -1.</_>
        <_>
          6 19 8 3 2.</_>
        <_>
          14 22 8 3 2.</_></rects>
      <tilted>0</tilted></_>
    <_>
      <rects>
        <_>
          7 18 14 8 -1.</_>
        <_>
          7 18 7 4 2.</_>
        <_>
          14 22 7 4 2.</_></rects>
      <tilted>0</tilted></_>
    <_>
      <rects>
        <_>
          7 20 6 7 -1.</_>
        <_>
          9 20 2 7 3.</_></rects>
      <tilted>0</tilted></_>
    <_>
      <rects>
        <_>
          7 22 6 3 -1.</_>
        <_>
          9 22 2 3 3.</_></rects>
      <tilted>0</tilted></_>
    <_>
      <rects>
        <_>
          8 21 6 6 -1.</_>
        <_>
          10 21 2 6 3.</_></rects>
      <tilted>0</tilted></_>
    <_>
      <rects>
        <_>
          9 11 2 15 -1.</_>
        <_>
          9 16 2 5 3.</_></rects>
      <tilted>0</tilted></_>
    <_>
      <rects>
        <_>
          9 18 18 3 -1.</_>
        <_>
          15 18 6 3 3.</_></rects>
      <tilted>0</tilted></_>
    <_>
      <rects>
        <_>
          9 22 6 4 -1.</_>
        <_>
          12 22 3 4 2.</_></rects>
      <tilted>0</tilted></_>
    <_>
      <rects>
        <_>
          9 26 6 2 -1.</_>
        <_>
          9 27 6 1 2.</_></rects>
      <tilted>0</tilted></_>
    <_>
      <rects>
        <_>
          10 22 6 2 -1.</_>
        <_>
          12 22 2 2 3.</_></rects>
      <tilted>0</tilted></_>
    <_>
      <rects>
        <_>
          10 27 24 3 -1.</_>
        <_>
          10 28 24 1 3.</_></rects>
      <tilted>0</tilted></_>
    <_>
      <rects>
        <_>
          13 9 3 20 -1.</_>
        <_>
          13 19 3 10 2.</_></rects>
      <tilted>0</tilted></_>
    <_>
      <rects>
        <_>
          13 16 34 2 -1.</_>
        <_>
          13 17 34 1 2.</_></rects>
      <tilted>0</tilted></_>
    <_>
      <rects>
        <_>
          14 12 12 16 -1.</_>
        <_>
          20 12 6 16 2.</_></rects>
      <tilted>0</tilted></_>
    <_>
      <rects>
        <_>
          14 15 16 14 -1.</_>
        <_>
          14 15 8 7 2.</_>
        <_>
          22 22 8 7 2.</_></rects>
      <tilted>0</tilted></_>
    <_>
      <rects>
        <_>
          15 15 12 8 -1.</_>
        <_>
          15 15 6 4 2.</_>
        <_>
          21 19 6 4 2.</_></rects>
      <tilted>0</tilted></_>
    <_>
      <rects>
        <_>
          17 14 14 8 -1.</_>
        <_>
          24 14 7 8 2.</_></rects>
      <tilted>0</tilted></_>
    <_>
      <rects>
        <_>
          17 21 18 6 -1.</_>
        <_>
          26 21 9 6 2.</_></rects>
      <tilted>0</tilted></_>
    <_>
      <rects>
        <_>
          18 16 4 10 -1.</_>
        <_>
          18 16 2 5 2.</_>
        <_>
          20 21 2 5 2.</_></rects>
      <tilted>0</tilted></_>
    <_>
      <rects>
        <_>
          19 18 6 8 -1.</_>
        <_>
          22 18 3 8 2.</_></rects>
      <tilted>0</tilted></_>
    <_>
      <rects>
        <_>
          19 20 6 1 -1.</_>
        <_>
          22 20 3 1 2.</_></rects>
      <tilted>0</tilted></_>
    <_>
      <rects>
        <_>
          19 20 9 1 -1.</_>
        <_>
          22 20 3 1 3.</_></rects>
      <tilted>0</tilted></_>
    <_>
      <rects>
        <_>
          21 20 6 6 -1.</_>
        <_>
          21 20 3 3 2.</_>
        <_>
          24 23 3 3 2.</_></rects>
      <tilted>0</tilted></_>
    <_>
      <rects>
        <_>
          23 18 10 10 -1.</_>
        <_>
          23 18 5 5 2.</_>
        <_>
          28 23 5 5 2.</_></rects>
      <tilted>0</tilted></_>
    <_>
      <rects>
        <_>
          23 23 9 2 -1.</_>
        <_>
          26 23 3 2 3.</_></rects>
      <tilted>0</tilted></_>
    <_>
      <rects>
        <_>
          24 10 18 2 -1.</_>
        <_>
          33 10 9 2 2.</_></rects>
      <tilted>0</tilted></_>
    <_>
      <rects>
        <_>
          24 20 4 2 -1.</_>
        <_>
          24 20 2 1 2.</_>
        <_>
          26 21 2 1 2.</_></rects>
      <tilted>0</tilted></_>
    <_>
      <rects>
        <_>
          24 20 4 4 -1.</_>
        <_>
          24 20 2 2 2.</_>
        <_>
          26 22 2 2 2.</_></rects>
      <tilted>0</tilted></_>
    <_>
      <rects>
        <_>
          24 21 4 2 -1.</_>
        <_>
          26 21 2 2 2.</_></rects>
      <tilted>0</tilted></_>
    <_>
      <rects>
        <_>
          27 5 22 8 -1.</_>
        <_>
          27 5 11 4 2.</_>
        <_>
          38 9 11 4 2.</_></rects>
      <tilted>0</tilted></_>
    <_>
      <rects>
        <_>
          28 6 6 3 -1.</_>
        <_>
          31 6 3 3 2.</_></rects>
      <tilted>0</tilted></_>
    <_>
      <rects>
        <_>
          29 17 4 6 -1.</_>
        <_>
          31 17 2 6 2.</_></rects>
      <tilted>0</tilted></_>
    <_>
      <rects>
        <_>
          29 19 16 8 -1.</_>
        <_>
          29 19 8 4 2.</_>
        <_>
          37 23 8 4 2.</_></rects>
      <tilted>0</tilted></_>
    <_>
      <rects>
        <_>
          30 2 10 10 -1.</_>
        <_>
          30 2 5 5 2.</_>
        <_>
          35 7 5 5 2.</_></rects>
      <tilted>0</tilted></_>
    <_>
      <rects>
        <_>
          30 22 3 8 -1.</_>
        <_>
          31 22 1 8 3.</_></rects>
      <tilted>0</tilted></_>
    <_>
      <rects>
        <_>
          31 18 12 8 -1.</_>
        <_>
          31 18 6 4 2.</_>
        <_>
          37 22 6 4 2.</_></rects>
      <tilted>0</tilted></_>
    <_>
      <rects>
        <_>
          32 22 12 3 -1.</_>
        <_>
          36 22 4 3 3.</_></rects>
      <tilted>0</tilted></_>
    <_>
      <rects>
        <_>
          32 26 18 4 -1.</_>
        <_>
          41 26 9 4 2.</_></rects>
      <tilted>0</tilted></_>
    <_>
      <rects>
        <_>
          34 18 8 8 -1.</_>
        <_>
          34 18 4 4 2.</_>
        <_>
          38 22 4 4 2.</_></rects>
      <tilted>0</tilted></_>
    <_>
      <rects>
        <_>
          35 3 12 21 -1.</_>
        <_>
          35 10 12 7 3.</_></rects>
      <tilted>0</tilted></_>
    <_>
      <rects>
        <_>
          35 20 8 9 -1.</_>
        <_>
          35 23 8 3 3.</_></rects>
      <tilted>0</tilted></_>
    <_>
      <rects>
        <_>
          35 23 9 3 -1.</_>
        <_>
          38 23 3 3 3.</_></rects>
      <tilted>0</tilted></_>
    <_>
      <rects>
        <_>
          36 0 10 24 -1.</_>
        <_>
          36 8 10 8 3.</_></rects>
      <tilted>0</tilted></_>
    <_>
      <rects>
        <_>
          36 11 9 12 -1.</_>
        <_>
          36 17 9 6 2.</_></rects>
      <tilted>0</tilted></_>
    <_>
      <rects>
        <_>
          36 19 10 6 -1.</_>
        <_>
          36 19 5 3 2.</_>
        <_>
          41 22 5 3 2.</_></rects>
      <tilted>0</tilted></_>
    <_>
      <rects>
        <_>
          36 20 7 9 -1.</_>
        <_>
          36 23 7 3 3.</_></rects>
      <tilted>0</tilted></_>
    <_>
      <rects>
        <_>
          37 14 6 12 -1.</_>
        <_>
          37 18 6 4 3.</_></rects>
      <tilted>0</tilted></_>
    <_>
      <rects>
        <_>
          37 23 6 5 -1.</_>
        <_>
          39 23 2 5 3.</_></rects>
      <tilted>0</tilted></_>
    <_>
      <rects>
        <_>
          38 12 1 15 -1.</_>
        <_>
          38 17 1 5 3.</_></rects>
      <tilted>0</tilted></_>
    <_>
      <rects>
        <_>
          39 11 8 12 -1.</_>
        <_>
          39 17 8 6 2.</_></rects>
      <tilted>0</tilted></_>
    <_>
      <rects>
        <_>
          39 23 9 1 -1.</_>
        <_>
          42 23 3 1 3.</_></rects>
      <tilted>0</tilted></_>
    <_>
      <rects>
        <_>
          42 24 8 6 -1.</_>
        <_>
          46 24 4 6 2.</_></rects>
      <tilted>0</tilted></_>
    <_>
      <rects>
        <_>
          44 22 6 6 -1.</_>
        <_>
          47 22 3 6 2.</_></rects>
      <tilted>0</tilted></_>
    <_>
      <rects>
        <_>
          46 20 4 8 -1.</_>
        <_>
          48 20 2 8 2.</_></rects>
      <tilted>0</tilted></_>
    <_>
      <rects>
        <_>
          46 23 4 6 -1.</_>
        <_>
          48 23 2 6 2.</_></rects>
      <tilted>0</tilted></_>
    <_>
      <rects>
        <_>
          48 22 2 8 -1.</_>
        <_>
          49 22 1 8 2.</_></rects>
      <tilted>0</tilted></_></features></cascade>
</opencv_storage>
